digraph Tree {
node [shape=box] ;
0 [label="alcohol <= 10.525\nentropy = 1.712\nsamples = 1279\nvalue = [7, 41, 548, 501, 167, 15]"] ;
1 [label="sulphates <= 0.535\nentropy = 1.393\nsamples = 807\nvalue = [4, 28, 470, 270, 34, 1]"] ;
0 -> 1 [labeldistance=2.5, labelangle=45, headlabel="True"] ;
2 [label="residual sugar <= 1.25\nentropy = 1.068\nsamples = 190\nvalue = [1, 14, 145, 29, 1, 0]"] ;
1 -> 2 ;
3 [label="density <= 0.995\nentropy = 1.0\nsamples = 2\nvalue = [1, 0, 0, 0, 1, 0]"] ;
2 -> 3 ;
4 [label="entropy = 0.0\nsamples = 1\nvalue = [0, 0, 0, 0, 1, 0]"] ;
3 -> 4 ;
5 [label="entropy = 0.0\nsamples = 1\nvalue = [1, 0, 0, 0, 0, 0]"] ;
3 -> 5 ;
6 [label="volatile acidity <= 0.315\nentropy = 0.984\nsamples = 188\nvalue = [0, 14, 145, 29, 0, 0]"] ;
2 -> 6 ;
7 [label="density <= 0.996\nentropy = 0.722\nsamples = 5\nvalue = [0, 1, 0, 4, 0, 0]"] ;
6 -> 7 ;
8 [label="entropy = 0.0\nsamples = 1\nvalue = [0, 1, 0, 0, 0, 0]"] ;
7 -> 8 ;
9 [label="entropy = 0.0\nsamples = 4\nvalue = [0, 0, 0, 4, 0, 0]"] ;
7 -> 9 ;
10 [label="pH <= 3.255\nentropy = 0.929\nsamples = 183\nvalue = [0, 13, 145, 25, 0, 0]"] ;
6 -> 10 ;
11 [label="total sulfur dioxide <= 11.0\nentropy = 0.552\nsamples = 78\nvalue = [0, 0, 68, 10, 0, 0]"] ;
10 -> 11 ;
12 [label="entropy = 0.0\nsamples = 2\nvalue = [0, 0, 0, 2, 0, 0]"] ;
11 -> 12 ;
13 [label="citric acid <= 0.235\nentropy = 0.485\nsamples = 76\nvalue = [0, 0, 68, 8, 0, 0]"] ;
11 -> 13 ;
14 [label="alcohol <= 9.55\nentropy = 0.712\nsamples = 41\nvalue = [0, 0, 33, 8, 0, 0]"] ;
13 -> 14 ;
15 [label="entropy = 0.0\nsamples = 17\nvalue = [0, 0, 17, 0, 0, 0]"] ;
14 -> 15 ;
16 [label="residual sugar <= 2.35\nentropy = 0.918\nsamples = 24\nvalue = [0, 0, 16, 8, 0, 0]"] ;
14 -> 16 ;
17 [label="volatile acidity <= 0.465\nentropy = 0.722\nsamples = 20\nvalue = [0, 0, 16, 4, 0, 0]"] ;
16 -> 17 ;
18 [label="entropy = 0.0\nsamples = 2\nvalue = [0, 0, 0, 2, 0, 0]"] ;
17 -> 18 ;
19 [label="volatile acidity <= 0.602\nentropy = 0.503\nsamples = 18\nvalue = [0, 0, 16, 2, 0, 0]"] ;
17 -> 19 ;
20 [label="volatile acidity <= 0.57\nentropy = 0.811\nsamples = 8\nvalue = [0, 0, 6, 2, 0, 0]"] ;
19 -> 20 ;
21 [label="entropy = 0.0\nsamples = 6\nvalue = [0, 0, 6, 0, 0, 0]"] ;
20 -> 21 ;
22 [label="entropy = 0.0\nsamples = 2\nvalue = [0, 0, 0, 2, 0, 0]"] ;
20 -> 22 ;
23 [label="entropy = 0.0\nsamples = 10\nvalue = [0, 0, 10, 0, 0, 0]"] ;
19 -> 23 ;
24 [label="entropy = 0.0\nsamples = 4\nvalue = [0, 0, 0, 4, 0, 0]"] ;
16 -> 24 ;
25 [label="entropy = 0.0\nsamples = 35\nvalue = [0, 0, 35, 0, 0, 0]"] ;
13 -> 25 ;
26 [label="volatile acidity <= 0.565\nentropy = 1.102\nsamples = 105\nvalue = [0, 13, 77, 15, 0, 0]"] ;
10 -> 26 ;
27 [label="alcohol <= 9.25\nentropy = 1.301\nsamples = 33\nvalue = [0, 3, 19, 11, 0, 0]"] ;
26 -> 27 ;
28 [label="pH <= 3.335\nentropy = 1.0\nsamples = 4\nvalue = [0, 2, 0, 2, 0, 0]"] ;
27 -> 28 ;
29 [label="entropy = 0.0\nsamples = 2\nvalue = [0, 0, 0, 2, 0, 0]"] ;
28 -> 29 ;
30 [label="entropy = 0.0\nsamples = 2\nvalue = [0, 2, 0, 0, 0, 0]"] ;
28 -> 30 ;
31 [label="fixed acidity <= 9.35\nentropy = 1.091\nsamples = 29\nvalue = [0, 1, 19, 9, 0, 0]"] ;
27 -> 31 ;
32 [label="volatile acidity <= 0.525\nentropy = 0.906\nsamples = 28\nvalue = [0, 0, 19, 9, 0, 0]"] ;
31 -> 32 ;
33 [label="sulphates <= 0.515\nentropy = 0.755\nsamples = 23\nvalue = [0, 0, 18, 5, 0, 0]"] ;
32 -> 33 ;
34 [label="free sulfur dioxide <= 25.5\nentropy = 0.337\nsamples = 16\nvalue = [0, 0, 15, 1, 0, 0]"] ;
33 -> 34 ;
35 [label="entropy = 0.0\nsamples = 13\nvalue = [0, 0, 13, 0, 0, 0]"] ;
34 -> 35 ;
36 [label="density <= 0.996\nentropy = 0.918\nsamples = 3\nvalue = [0, 0, 2, 1, 0, 0]"] ;
34 -> 36 ;
37 [label="entropy = 0.0\nsamples = 1\nvalue = [0, 0, 0, 1, 0, 0]"] ;
36 -> 37 ;
38 [label="entropy = 0.0\nsamples = 2\nvalue = [0, 0, 2, 0, 0, 0]"] ;
36 -> 38 ;
39 [label="alcohol <= 9.65\nentropy = 0.985\nsamples = 7\nvalue = [0, 0, 3, 4, 0, 0]"] ;
33 -> 39 ;
40 [label="entropy = 0.0\nsamples = 3\nvalue = [0, 0, 3, 0, 0, 0]"] ;
39 -> 40 ;
41 [label="entropy = 0.0\nsamples = 4\nvalue = [0, 0, 0, 4, 0, 0]"] ;
39 -> 41 ;
42 [label="density <= 0.996\nentropy = 0.722\nsamples = 5\nvalue = [0, 0, 1, 4, 0, 0]"] ;
32 -> 42 ;
43 [label="entropy = 0.0\nsamples = 1\nvalue = [0, 0, 1, 0, 0, 0]"] ;
42 -> 43 ;
44 [label="entropy = 0.0\nsamples = 4\nvalue = [0, 0, 0, 4, 0, 0]"] ;
42 -> 44 ;
45 [label="entropy = 0.0\nsamples = 1\nvalue = [0, 1, 0, 0, 0, 0]"] ;
31 -> 45 ;
46 [label="sulphates <= 0.495\nentropy = 0.879\nsamples = 72\nvalue = [0, 10, 58, 4, 0, 0]"] ;
26 -> 46 ;
47 [label="volatile acidity <= 0.722\nentropy = 0.764\nsamples = 36\nvalue = [0, 8, 28, 0, 0, 0]"] ;
46 -> 47 ;
48 [label="entropy = 0.0\nsamples = 19\nvalue = [0, 0, 19, 0, 0, 0]"] ;
47 -> 48 ;
49 [label="residual sugar <= 2.75\nentropy = 0.998\nsamples = 17\nvalue = [0, 8, 9, 0, 0, 0]"] ;
47 -> 49 ;
50 [label="citric acid <= 0.015\nentropy = 0.961\nsamples = 13\nvalue = [0, 8, 5, 0, 0, 0]"] ;
49 -> 50 ;
51 [label="entropy = 0.0\nsamples = 3\nvalue = [0, 3, 0, 0, 0, 0]"] ;
50 -> 51 ;
52 [label="pH <= 3.32\nentropy = 1.0\nsamples = 10\nvalue = [0, 5, 5, 0, 0, 0]"] ;
50 -> 52 ;
53 [label="entropy = 0.0\nsamples = 3\nvalue = [0, 3, 0, 0, 0, 0]"] ;
52 -> 53 ;
54 [label="pH <= 3.45\nentropy = 0.863\nsamples = 7\nvalue = [0, 2, 5, 0, 0, 0]"] ;
52 -> 54 ;
55 [label="entropy = 0.0\nsamples = 5\nvalue = [0, 0, 5, 0, 0, 0]"] ;
54 -> 55 ;
56 [label="entropy = 0.0\nsamples = 2\nvalue = [0, 2, 0, 0, 0, 0]"] ;
54 -> 56 ;
57 [label="entropy = 0.0\nsamples = 4\nvalue = [0, 0, 4, 0, 0, 0]"] ;
49 -> 57 ;
58 [label="alcohol <= 9.25\nentropy = 0.803\nsamples = 36\nvalue = [0, 2, 30, 4, 0, 0]"] ;
46 -> 58 ;
59 [label="chlorides <= 0.08\nentropy = 0.971\nsamples = 5\nvalue = [0, 2, 3, 0, 0, 0]"] ;
58 -> 59 ;
60 [label="entropy = 0.0\nsamples = 3\nvalue = [0, 0, 3, 0, 0, 0]"] ;
59 -> 60 ;
61 [label="entropy = 0.0\nsamples = 2\nvalue = [0, 2, 0, 0, 0, 0]"] ;
59 -> 61 ;
62 [label="chlorides <= 0.083\nentropy = 0.555\nsamples = 31\nvalue = [0, 0, 27, 4, 0, 0]"] ;
58 -> 62 ;
63 [label="residual sugar <= 6.65\nentropy = 0.764\nsamples = 18\nvalue = [0, 0, 14, 4, 0, 0]"] ;
62 -> 63 ;
64 [label="alcohol <= 9.6\nentropy = 0.672\nsamples = 17\nvalue = [0, 0, 14, 3, 0, 0]"] ;
63 -> 64 ;
65 [label="entropy = 0.0\nsamples = 8\nvalue = [0, 0, 8, 0, 0, 0]"] ;
64 -> 65 ;
66 [label="citric acid <= 0.025\nentropy = 0.918\nsamples = 9\nvalue = [0, 0, 6, 3, 0, 0]"] ;
64 -> 66 ;
67 [label="entropy = 0.0\nsamples = 2\nvalue = [0, 0, 0, 2, 0, 0]"] ;
66 -> 67 ;
68 [label="sulphates <= 0.51\nentropy = 0.592\nsamples = 7\nvalue = [0, 0, 6, 1, 0, 0]"] ;
66 -> 68 ;
69 [label="entropy = 0.0\nsamples = 1\nvalue = [0, 0, 0, 1, 0, 0]"] ;
68 -> 69 ;
70 [label="entropy = 0.0\nsamples = 6\nvalue = [0, 0, 6, 0, 0, 0]"] ;
68 -> 70 ;
71 [label="entropy = 0.0\nsamples = 1\nvalue = [0, 0, 0, 1, 0, 0]"] ;
63 -> 71 ;
72 [label="entropy = 0.0\nsamples = 13\nvalue = [0, 0, 13, 0, 0, 0]"] ;
62 -> 72 ;
73 [label="alcohol <= 9.85\nentropy = 1.419\nsamples = 617\nvalue = [3, 14, 325, 241, 33, 1]"] ;
1 -> 73 ;
74 [label="fixed acidity <= 10.85\nentropy = 1.225\nsamples = 385\nvalue = [2, 8, 240, 128, 6, 1]"] ;
73 -> 74 ;
75 [label="total sulfur dioxide <= 98.5\nentropy = 1.127\nsamples = 360\nvalue = [1, 7, 237, 111, 4, 0]"] ;
74 -> 75 ;
76 [label="volatile acidity <= 0.655\nentropy = 1.179\nsamples = 311\nvalue = [1, 6, 191, 109, 4, 0]"] ;
75 -> 76 ;
77 [label="citric acid <= 0.005\nentropy = 1.137\nsamples = 240\nvalue = [0, 2, 141, 93, 4, 0]"] ;
76 -> 77 ;
78 [label="entropy = 0.0\nsamples = 7\nvalue = [0, 0, 0, 7, 0, 0]"] ;
77 -> 78 ;
79 [label="citric acid <= 0.445\nentropy = 1.129\nsamples = 233\nvalue = [0, 2, 141, 86, 4, 0]"] ;
77 -> 79 ;
80 [label="fixed acidity <= 10.05\nentropy = 1.098\nsamples = 191\nvalue = [0, 0, 112, 75, 4, 0]"] ;
79 -> 80 ;
81 [label="chlorides <= 0.097\nentropy = 1.087\nsamples = 180\nvalue = [0, 0, 110, 66, 4, 0]"] ;
80 -> 81 ;
82 [label="sulphates <= 0.795\nentropy = 1.14\nsamples = 146\nvalue = [0, 0, 81, 61, 4, 0]"] ;
81 -> 82 ;
83 [label="fixed acidity <= 9.05\nentropy = 1.133\nsamples = 140\nvalue = [0, 0, 81, 55, 4, 0]"] ;
82 -> 83 ;
84 [label="chlorides <= 0.09\nentropy = 1.131\nsamples = 123\nvalue = [0, 0, 67, 53, 3, 0]"] ;
83 -> 84 ;
85 [label="residual sugar <= 2.65\nentropy = 1.128\nsamples = 119\nvalue = [0, 0, 67, 49, 3, 0]"] ;
84 -> 85 ;
86 [label="residual sugar <= 1.85\nentropy = 1.142\nsamples = 113\nvalue = [0, 0, 61, 49, 3, 0]"] ;
85 -> 86 ;
87 [label="alcohol <= 9.45\nentropy = 0.9\nsamples = 38\nvalue = [0, 0, 26, 12, 0, 0]"] ;
86 -> 87 ;
88 [label="entropy = 0.0\nsamples = 15\nvalue = [0, 0, 15, 0, 0, 0]"] ;
87 -> 88 ;
89 [label="sulphates <= 0.655\nentropy = 0.999\nsamples = 23\nvalue = [0, 0, 11, 12, 0, 0]"] ;
87 -> 89 ;
90 [label="free sulfur dioxide <= 12.0\nentropy = 0.779\nsamples = 13\nvalue = [0, 0, 3, 10, 0, 0]"] ;
89 -> 90 ;
91 [label="pH <= 3.22\nentropy = 1.0\nsamples = 6\nvalue = [0, 0, 3, 3, 0, 0]"] ;
90 -> 91 ;
92 [label="entropy = 0.0\nsamples = 3\nvalue = [0, 0, 0, 3, 0, 0]"] ;
91 -> 92 ;
93 [label="entropy = 0.0\nsamples = 3\nvalue = [0, 0, 3, 0, 0, 0]"] ;
91 -> 93 ;
94 [label="entropy = 0.0\nsamples = 7\nvalue = [0, 0, 0, 7, 0, 0]"] ;
90 -> 94 ;
95 [label="density <= 0.997\nentropy = 0.722\nsamples = 10\nvalue = [0, 0, 8, 2, 0, 0]"] ;
89 -> 95 ;
96 [label="entropy = 0.0\nsamples = 8\nvalue = [0, 0, 8, 0, 0, 0]"] ;
95 -> 96 ;
97 [label="entropy = 0.0\nsamples = 2\nvalue = [0, 0, 0, 2, 0, 0]"] ;
95 -> 97 ;
98 [label="free sulfur dioxide <= 26.5\nentropy = 1.202\nsamples = 75\nvalue = [0, 0, 35, 37, 3, 0]"] ;
86 -> 98 ;
99 [label="density <= 0.997\nentropy = 1.204\nsamples = 69\nvalue = [0, 0, 29, 37, 3, 0]"] ;
98 -> 99 ;
100 [label="density <= 0.997\nentropy = 1.278\nsamples = 29\nvalue = [0, 0, 8, 18, 3, 0]"] ;
99 -> 100 ;
101 [label="chlorides <= 0.08\nentropy = 0.991\nsamples = 18\nvalue = [0, 0, 8, 10, 0, 0]"] ;
100 -> 101 ;
102 [label="total sulfur dioxide <= 26.5\nentropy = 0.961\nsamples = 13\nvalue = [0, 0, 8, 5, 0, 0]"] ;
101 -> 102 ;
103 [label="entropy = 0.0\nsamples = 3\nvalue = [0, 0, 0, 3, 0, 0]"] ;
102 -> 103 ;
104 [label="volatile acidity <= 0.475\nentropy = 0.722\nsamples = 10\nvalue = [0, 0, 8, 2, 0, 0]"] ;
102 -> 104 ;
105 [label="chlorides <= 0.075\nentropy = 0.918\nsamples = 3\nvalue = [0, 0, 1, 2, 0, 0]"] ;
104 -> 105 ;
106 [label="entropy = 0.0\nsamples = 2\nvalue = [0, 0, 0, 2, 0, 0]"] ;
105 -> 106 ;
107 [label="entropy = 0.0\nsamples = 1\nvalue = [0, 0, 1, 0, 0, 0]"] ;
105 -> 107 ;
108 [label="entropy = 0.0\nsamples = 7\nvalue = [0, 0, 7, 0, 0, 0]"] ;
104 -> 108 ;
109 [label="entropy = 0.0\nsamples = 5\nvalue = [0, 0, 0, 5, 0, 0]"] ;
101 -> 109 ;
110 [label="total sulfur dioxide <= 37.5\nentropy = 0.845\nsamples = 11\nvalue = [0, 0, 0, 8, 3, 0]"] ;
100 -> 110 ;
111 [label="sulphates <= 0.555\nentropy = 0.811\nsamples = 4\nvalue = [0, 0, 0, 1, 3, 0]"] ;
110 -> 111 ;
112 [label="entropy = 0.0\nsamples = 1\nvalue = [0, 0, 0, 1, 0, 0]"] ;
111 -> 112 ;
113 [label="entropy = 0.0\nsamples = 3\nvalue = [0, 0, 0, 0, 3, 0]"] ;
111 -> 113 ;
114 [label="entropy = 0.0\nsamples = 7\nvalue = [0, 0, 0, 7, 0, 0]"] ;
110 -> 114 ;
115 [label="alcohol <= 9.1\nentropy = 0.998\nsamples = 40\nvalue = [0, 0, 21, 19, 0, 0]"] ;
99 -> 115 ;
116 [label="entropy = 0.0\nsamples = 4\nvalue = [0, 0, 0, 4, 0, 0]"] ;
115 -> 116 ;
117 [label="total sulfur dioxide <= 28.5\nentropy = 0.98\nsamples = 36\nvalue = [0, 0, 21, 15, 0, 0]"] ;
115 -> 117 ;
118 [label="residual sugar <= 2.2\nentropy = 0.722\nsamples = 10\nvalue = [0, 0, 2, 8, 0, 0]"] ;
117 -> 118 ;
119 [label="entropy = 0.0\nsamples = 7\nvalue = [0, 0, 0, 7, 0, 0]"] ;
118 -> 119 ;
120 [label="total sulfur dioxide <= 21.5\nentropy = 0.918\nsamples = 3\nvalue = [0, 0, 2, 1, 0, 0]"] ;
118 -> 120 ;
121 [label="entropy = 0.0\nsamples = 2\nvalue = [0, 0, 2, 0, 0, 0]"] ;
120 -> 121 ;
122 [label="entropy = 0.0\nsamples = 1\nvalue = [0, 0, 0, 1, 0, 0]"] ;
120 -> 122 ;
123 [label="chlorides <= 0.079\nentropy = 0.84\nsamples = 26\nvalue = [0, 0, 19, 7, 0, 0]"] ;
117 -> 123 ;
124 [label="volatile acidity <= 0.52\nentropy = 0.371\nsamples = 14\nvalue = [0, 0, 13, 1, 0, 0]"] ;
123 -> 124 ;
125 [label="sulphates <= 0.68\nentropy = 1.0\nsamples = 2\nvalue = [0, 0, 1, 1, 0, 0]"] ;
124 -> 125 ;
126 [label="entropy = 0.0\nsamples = 1\nvalue = [0, 0, 1, 0, 0, 0]"] ;
125 -> 126 ;
127 [label="entropy = 0.0\nsamples = 1\nvalue = [0, 0, 0, 1, 0, 0]"] ;
125 -> 127 ;
128 [label="entropy = 0.0\nsamples = 12\nvalue = [0, 0, 12, 0, 0, 0]"] ;
124 -> 128 ;
129 [label="sulphates <= 0.61\nentropy = 1.0\nsamples = 12\nvalue = [0, 0, 6, 6, 0, 0]"] ;
123 -> 129 ;
130 [label="entropy = 0.0\nsamples = 3\nvalue = [0, 0, 0, 3, 0, 0]"] ;
129 -> 130 ;
131 [label="chlorides <= 0.087\nentropy = 0.918\nsamples = 9\nvalue = [0, 0, 6, 3, 0, 0]"] ;
129 -> 131 ;
132 [label="free sulfur dioxide <= 24.5\nentropy = 0.592\nsamples = 7\nvalue = [0, 0, 6, 1, 0, 0]"] ;
131 -> 132 ;
133 [label="entropy = 0.0\nsamples = 6\nvalue = [0, 0, 6, 0, 0, 0]"] ;
132 -> 133 ;
134 [label="entropy = 0.0\nsamples = 1\nvalue = [0, 0, 0, 1, 0, 0]"] ;
132 -> 134 ;
135 [label="entropy = 0.0\nsamples = 2\nvalue = [0, 0, 0, 2, 0, 0]"] ;
131 -> 135 ;
136 [label="entropy = 0.0\nsamples = 6\nvalue = [0, 0, 6, 0, 0, 0]"] ;
98 -> 136 ;
137 [label="entropy = 0.0\nsamples = 6\nvalue = [0, 0, 6, 0, 0, 0]"] ;
85 -> 137 ;
138 [label="entropy = 0.0\nsamples = 4\nvalue = [0, 0, 0, 4, 0, 0]"] ;
84 -> 138 ;
139 [label="residual sugar <= 7.2\nentropy = 0.834\nsamples = 17\nvalue = [0, 0, 14, 2, 1, 0]"] ;
83 -> 139 ;
140 [label="chlorides <= 0.092\nentropy = 0.353\nsamples = 15\nvalue = [0, 0, 14, 0, 1, 0]"] ;
139 -> 140 ;
141 [label="entropy = 0.0\nsamples = 13\nvalue = [0, 0, 13, 0, 0, 0]"] ;
140 -> 141 ;
142 [label="free sulfur dioxide <= 11.5\nentropy = 1.0\nsamples = 2\nvalue = [0, 0, 1, 0, 1, 0]"] ;
140 -> 142 ;
143 [label="entropy = 0.0\nsamples = 1\nvalue = [0, 0, 0, 0, 1, 0]"] ;
142 -> 143 ;
144 [label="entropy = 0.0\nsamples = 1\nvalue = [0, 0, 1, 0, 0, 0]"] ;
142 -> 144 ;
145 [label="entropy = 0.0\nsamples = 2\nvalue = [0, 0, 0, 2, 0, 0]"] ;
139 -> 145 ;
146 [label="entropy = 0.0\nsamples = 6\nvalue = [0, 0, 0, 6, 0, 0]"] ;
82 -> 146 ;
147 [label="free sulfur dioxide <= 7.5\nentropy = 0.602\nsamples = 34\nvalue = [0, 0, 29, 5, 0, 0]"] ;
81 -> 147 ;
148 [label="volatile acidity <= 0.555\nentropy = 0.918\nsamples = 6\nvalue = [0, 0, 2, 4, 0, 0]"] ;
147 -> 148 ;
149 [label="entropy = 0.0\nsamples = 4\nvalue = [0, 0, 0, 4, 0, 0]"] ;
148 -> 149 ;
150 [label="entropy = 0.0\nsamples = 2\nvalue = [0, 0, 2, 0, 0, 0]"] ;
148 -> 150 ;
151 [label="citric acid <= 0.085\nentropy = 0.222\nsamples = 28\nvalue = [0, 0, 27, 1, 0, 0]"] ;
147 -> 151 ;
152 [label="volatile acidity <= 0.57\nentropy = 0.65\nsamples = 6\nvalue = [0, 0, 5, 1, 0, 0]"] ;
151 -> 152 ;
153 [label="entropy = 0.0\nsamples = 1\nvalue = [0, 0, 0, 1, 0, 0]"] ;
152 -> 153 ;
154 [label="entropy = 0.0\nsamples = 5\nvalue = [0, 0, 5, 0, 0, 0]"] ;
152 -> 154 ;
155 [label="entropy = 0.0\nsamples = 22\nvalue = [0, 0, 22, 0, 0, 0]"] ;
151 -> 155 ;
156 [label="chlorides <= 0.074\nentropy = 0.684\nsamples = 11\nvalue = [0, 0, 2, 9, 0, 0]"] ;
80 -> 156 ;
157 [label="entropy = 0.0\nsamples = 2\nvalue = [0, 0, 2, 0, 0, 0]"] ;
156 -> 157 ;
158 [label="entropy = 0.0\nsamples = 9\nvalue = [0, 0, 0, 9, 0, 0]"] ;
156 -> 158 ;
159 [label="residual sugar <= 2.55\nentropy = 1.084\nsamples = 42\nvalue = [0, 2, 29, 11, 0, 0]"] ;
79 -> 159 ;
160 [label="chlorides <= 0.067\nentropy = 0.896\nsamples = 32\nvalue = [0, 0, 22, 10, 0, 0]"] ;
159 -> 160 ;
161 [label="entropy = 0.0\nsamples = 2\nvalue = [0, 0, 0, 2, 0, 0]"] ;
160 -> 161 ;
162 [label="density <= 0.998\nentropy = 0.837\nsamples = 30\nvalue = [0, 0, 22, 8, 0, 0]"] ;
160 -> 162 ;
163 [label="total sulfur dioxide <= 34.5\nentropy = 0.971\nsamples = 20\nvalue = [0, 0, 12, 8, 0, 0]"] ;
162 -> 163 ;
164 [label="free sulfur dioxide <= 5.5\nentropy = 0.722\nsamples = 5\nvalue = [0, 0, 1, 4, 0, 0]"] ;
163 -> 164 ;
165 [label="entropy = 0.0\nsamples = 1\nvalue = [0, 0, 1, 0, 0, 0]"] ;
164 -> 165 ;
166 [label="entropy = 0.0\nsamples = 4\nvalue = [0, 0, 0, 4, 0, 0]"] ;
164 -> 166 ;
167 [label="fixed acidity <= 7.85\nentropy = 0.837\nsamples = 15\nvalue = [0, 0, 11, 4, 0, 0]"] ;
163 -> 167 ;
168 [label="entropy = 0.0\nsamples = 6\nvalue = [0, 0, 6, 0, 0, 0]"] ;
167 -> 168 ;
169 [label="chlorides <= 0.355\nentropy = 0.991\nsamples = 9\nvalue = [0, 0, 5, 4, 0, 0]"] ;
167 -> 169 ;
170 [label="volatile acidity <= 0.305\nentropy = 0.722\nsamples = 5\nvalue = [0, 0, 1, 4, 0, 0]"] ;
169 -> 170 ;
171 [label="entropy = 0.0\nsamples = 1\nvalue = [0, 0, 1, 0, 0, 0]"] ;
170 -> 171 ;
172 [label="entropy = 0.0\nsamples = 4\nvalue = [0, 0, 0, 4, 0, 0]"] ;
170 -> 172 ;
173 [label="entropy = 0.0\nsamples = 4\nvalue = [0, 0, 4, 0, 0, 0]"] ;
169 -> 173 ;
174 [label="entropy = 0.0\nsamples = 10\nvalue = [0, 0, 10, 0, 0, 0]"] ;
162 -> 174 ;
175 [label="fixed acidity <= 9.55\nentropy = 1.157\nsamples = 10\nvalue = [0, 2, 7, 1, 0, 0]"] ;
159 -> 175 ;
176 [label="pH <= 3.33\nentropy = 1.5\nsamples = 4\nvalue = [0, 2, 1, 1, 0, 0]"] ;
175 -> 176 ;
177 [label="entropy = 0.0\nsamples = 2\nvalue = [0, 2, 0, 0, 0, 0]"] ;
176 -> 177 ;
178 [label="fixed acidity <= 8.6\nentropy = 1.0\nsamples = 2\nvalue = [0, 0, 1, 1, 0, 0]"] ;
176 -> 178 ;
179 [label="entropy = 0.0\nsamples = 1\nvalue = [0, 0, 0, 1, 0, 0]"] ;
178 -> 179 ;
180 [label="entropy = 0.0\nsamples = 1\nvalue = [0, 0, 1, 0, 0, 0]"] ;
178 -> 180 ;
181 [label="entropy = 0.0\nsamples = 6\nvalue = [0, 0, 6, 0, 0, 0]"] ;
175 -> 181 ;
182 [label="chlorides <= 0.063\nentropy = 1.161\nsamples = 71\nvalue = [1, 4, 50, 16, 0, 0]"] ;
76 -> 182 ;
183 [label="entropy = 0.0\nsamples = 1\nvalue = [1, 0, 0, 0, 0, 0]"] ;
182 -> 183 ;
184 [label="alcohol <= 9.05\nentropy = 1.069\nsamples = 70\nvalue = [0, 4, 50, 16, 0, 0]"] ;
182 -> 184 ;
185 [label="density <= 0.997\nentropy = 0.722\nsamples = 5\nvalue = [0, 0, 1, 4, 0, 0]"] ;
184 -> 185 ;
186 [label="entropy = 0.0\nsamples = 1\nvalue = [0, 0, 1, 0, 0, 0]"] ;
185 -> 186 ;
187 [label="entropy = 0.0\nsamples = 4\nvalue = [0, 0, 0, 4, 0, 0]"] ;
185 -> 187 ;
188 [label="free sulfur dioxide <= 3.5\nentropy = 1.005\nsamples = 65\nvalue = [0, 4, 49, 12, 0, 0]"] ;
184 -> 188 ;
189 [label="entropy = 0.0\nsamples = 2\nvalue = [0, 0, 0, 2, 0, 0]"] ;
188 -> 189 ;
190 [label="fixed acidity <= 9.05\nentropy = 0.956\nsamples = 63\nvalue = [0, 4, 49, 10, 0, 0]"] ;
188 -> 190 ;
191 [label="citric acid <= 0.07\nentropy = 0.793\nsamples = 55\nvalue = [0, 3, 46, 6, 0, 0]"] ;
190 -> 191 ;
192 [label="sulphates <= 0.7\nentropy = 0.391\nsamples = 26\nvalue = [0, 2, 24, 0, 0, 0]"] ;
191 -> 192 ;
193 [label="entropy = 0.0\nsamples = 22\nvalue = [0, 0, 22, 0, 0, 0]"] ;
192 -> 193 ;
194 [label="volatile acidity <= 0.675\nentropy = 1.0\nsamples = 4\nvalue = [0, 2, 2, 0, 0, 0]"] ;
192 -> 194 ;
195 [label="entropy = 0.0\nsamples = 2\nvalue = [0, 0, 2, 0, 0, 0]"] ;
194 -> 195 ;
196 [label="entropy = 0.0\nsamples = 2\nvalue = [0, 2, 0, 0, 0, 0]"] ;
194 -> 196 ;
197 [label="pH <= 3.215\nentropy = 0.94\nsamples = 29\nvalue = [0, 1, 22, 6, 0, 0]"] ;
191 -> 197 ;
198 [label="free sulfur dioxide <= 11.5\nentropy = 0.414\nsamples = 12\nvalue = [0, 1, 11, 0, 0, 0]"] ;
197 -> 198 ;
199 [label="total sulfur dioxide <= 49.0\nentropy = 1.0\nsamples = 2\nvalue = [0, 1, 1, 0, 0, 0]"] ;
198 -> 199 ;
200 [label="entropy = 0.0\nsamples = 1\nvalue = [0, 0, 1, 0, 0, 0]"] ;
199 -> 200 ;
201 [label="entropy = 0.0\nsamples = 1\nvalue = [0, 1, 0, 0, 0, 0]"] ;
199 -> 201 ;
202 [label="entropy = 0.0\nsamples = 10\nvalue = [0, 0, 10, 0, 0, 0]"] ;
198 -> 202 ;
203 [label="free sulfur dioxide <= 12.0\nentropy = 0.937\nsamples = 17\nvalue = [0, 0, 11, 6, 0, 0]"] ;
197 -> 203 ;
204 [label="citric acid <= 0.09\nentropy = 0.469\nsamples = 10\nvalue = [0, 0, 9, 1, 0, 0]"] ;
203 -> 204 ;
205 [label="entropy = 0.0\nsamples = 1\nvalue = [0, 0, 0, 1, 0, 0]"] ;
204 -> 205 ;
206 [label="entropy = 0.0\nsamples = 9\nvalue = [0, 0, 9, 0, 0, 0]"] ;
204 -> 206 ;
207 [label="chlorides <= 0.073\nentropy = 0.863\nsamples = 7\nvalue = [0, 0, 2, 5, 0, 0]"] ;
203 -> 207 ;
208 [label="entropy = 0.0\nsamples = 1\nvalue = [0, 0, 1, 0, 0, 0]"] ;
207 -> 208 ;
209 [label="sulphates <= 0.615\nentropy = 0.65\nsamples = 6\nvalue = [0, 0, 1, 5, 0, 0]"] ;
207 -> 209 ;
210 [label="entropy = 0.0\nsamples = 4\nvalue = [0, 0, 0, 4, 0, 0]"] ;
209 -> 210 ;
211 [label="total sulfur dioxide <= 71.0\nentropy = 1.0\nsamples = 2\nvalue = [0, 0, 1, 1, 0, 0]"] ;
209 -> 211 ;
212 [label="entropy = 0.0\nsamples = 1\nvalue = [0, 0, 0, 1, 0, 0]"] ;
211 -> 212 ;
213 [label="entropy = 0.0\nsamples = 1\nvalue = [0, 0, 1, 0, 0, 0]"] ;
211 -> 213 ;
214 [label="alcohol <= 9.55\nentropy = 1.406\nsamples = 8\nvalue = [0, 1, 3, 4, 0, 0]"] ;
190 -> 214 ;
215 [label="free sulfur dioxide <= 25.5\nentropy = 0.722\nsamples = 5\nvalue = [0, 0, 1, 4, 0, 0]"] ;
214 -> 215 ;
216 [label="entropy = 0.0\nsamples = 4\nvalue = [0, 0, 0, 4, 0, 0]"] ;
215 -> 216 ;
217 [label="entropy = 0.0\nsamples = 1\nvalue = [0, 0, 1, 0, 0, 0]"] ;
215 -> 217 ;
218 [label="residual sugar <= 2.1\nentropy = 0.918\nsamples = 3\nvalue = [0, 1, 2, 0, 0, 0]"] ;
214 -> 218 ;
219 [label="entropy = 0.0\nsamples = 1\nvalue = [0, 1, 0, 0, 0, 0]"] ;
218 -> 219 ;
220 [label="entropy = 0.0\nsamples = 2\nvalue = [0, 0, 2, 0, 0, 0]"] ;
218 -> 220 ;
221 [label="chlorides <= 0.072\nentropy = 0.389\nsamples = 49\nvalue = [0, 1, 46, 2, 0, 0]"] ;
75 -> 221 ;
222 [label="citric acid <= 0.29\nentropy = 0.918\nsamples = 3\nvalue = [0, 0, 1, 2, 0, 0]"] ;
221 -> 222 ;
223 [label="entropy = 0.0\nsamples = 2\nvalue = [0, 0, 0, 2, 0, 0]"] ;
222 -> 223 ;
224 [label="entropy = 0.0\nsamples = 1\nvalue = [0, 0, 1, 0, 0, 0]"] ;
222 -> 224 ;
225 [label="residual sugar <= 1.65\nentropy = 0.151\nsamples = 46\nvalue = [0, 1, 45, 0, 0, 0]"] ;
221 -> 225 ;
226 [label="entropy = 0.0\nsamples = 1\nvalue = [0, 1, 0, 0, 0, 0]"] ;
225 -> 226 ;
227 [label="entropy = 0.0\nsamples = 45\nvalue = [0, 0, 45, 0, 0, 0]"] ;
225 -> 227 ;
228 [label="sulphates <= 0.815\nentropy = 1.594\nsamples = 25\nvalue = [1, 1, 3, 17, 2, 1]"] ;
74 -> 228 ;
229 [label="residual sugar <= 2.25\nentropy = 1.192\nsamples = 19\nvalue = [1, 1, 3, 14, 0, 0]"] ;
228 -> 229 ;
230 [label="volatile acidity <= 0.52\nentropy = 0.439\nsamples = 11\nvalue = [1, 0, 0, 10, 0, 0]"] ;
229 -> 230 ;
231 [label="entropy = 0.0\nsamples = 10\nvalue = [0, 0, 0, 10, 0, 0]"] ;
230 -> 231 ;
232 [label="entropy = 0.0\nsamples = 1\nvalue = [1, 0, 0, 0, 0, 0]"] ;
230 -> 232 ;
233 [label="density <= 0.999\nentropy = 1.406\nsamples = 8\nvalue = [0, 1, 3, 4, 0, 0]"] ;
229 -> 233 ;
234 [label="fixed acidity <= 12.45\nentropy = 0.918\nsamples = 3\nvalue = [0, 1, 2, 0, 0, 0]"] ;
233 -> 234 ;
235 [label="entropy = 0.0\nsamples = 2\nvalue = [0, 0, 2, 0, 0, 0]"] ;
234 -> 235 ;
236 [label="entropy = 0.0\nsamples = 1\nvalue = [0, 1, 0, 0, 0, 0]"] ;
234 -> 236 ;
237 [label="pH <= 2.99\nentropy = 0.722\nsamples = 5\nvalue = [0, 0, 1, 4, 0, 0]"] ;
233 -> 237 ;
238 [label="entropy = 0.0\nsamples = 1\nvalue = [0, 0, 1, 0, 0, 0]"] ;
237 -> 238 ;
239 [label="entropy = 0.0\nsamples = 4\nvalue = [0, 0, 0, 4, 0, 0]"] ;
237 -> 239 ;
240 [label="fixed acidity <= 12.35\nentropy = 1.459\nsamples = 6\nvalue = [0, 0, 0, 3, 2, 1]"] ;
228 -> 240 ;
241 [label="entropy = 0.0\nsamples = 3\nvalue = [0, 0, 0, 3, 0, 0]"] ;
240 -> 241 ;
242 [label="chlorides <= 0.073\nentropy = 0.918\nsamples = 3\nvalue = [0, 0, 0, 0, 2, 1]"] ;
240 -> 242 ;
243 [label="entropy = 0.0\nsamples = 1\nvalue = [0, 0, 0, 0, 0, 1]"] ;
242 -> 243 ;
244 [label="entropy = 0.0\nsamples = 2\nvalue = [0, 0, 0, 0, 2, 0]"] ;
242 -> 244 ;
245 [label="sulphates <= 0.635\nentropy = 1.568\nsamples = 232\nvalue = [1, 6, 85, 113, 27, 0]"] ;
73 -> 245 ;
246 [label="pH <= 3.585\nentropy = 1.392\nsamples = 101\nvalue = [0, 5, 43, 50, 3, 0]"] ;
245 -> 246 ;
247 [label="citric acid <= 0.125\nentropy = 1.326\nsamples = 99\nvalue = [0, 3, 43, 50, 3, 0]"] ;
246 -> 247 ;
248 [label="alcohol <= 10.35\nentropy = 1.258\nsamples = 30\nvalue = [0, 0, 8, 19, 3, 0]"] ;
247 -> 248 ;
249 [label="total sulfur dioxide <= 28.5\nentropy = 1.252\nsamples = 18\nvalue = [0, 0, 8, 9, 1, 0]"] ;
248 -> 249 ;
250 [label="total sulfur dioxide <= 27.0\nentropy = 0.811\nsamples = 4\nvalue = [0, 0, 3, 0, 1, 0]"] ;
249 -> 250 ;
251 [label="entropy = 0.0\nsamples = 3\nvalue = [0, 0, 3, 0, 0, 0]"] ;
250 -> 251 ;
252 [label="entropy = 0.0\nsamples = 1\nvalue = [0, 0, 0, 0, 1, 0]"] ;
250 -> 252 ;
253 [label="residual sugar <= 2.55\nentropy = 0.94\nsamples = 14\nvalue = [0, 0, 5, 9, 0, 0]"] ;
249 -> 253 ;
254 [label="pH <= 3.37\nentropy = 0.811\nsamples = 12\nvalue = [0, 0, 3, 9, 0, 0]"] ;
253 -> 254 ;
255 [label="pH <= 3.335\nentropy = 1.0\nsamples = 6\nvalue = [0, 0, 3, 3, 0, 0]"] ;
254 -> 255 ;
256 [label="entropy = 0.0\nsamples = 3\nvalue = [0, 0, 0, 3, 0, 0]"] ;
255 -> 256 ;
257 [label="entropy = 0.0\nsamples = 3\nvalue = [0, 0, 3, 0, 0, 0]"] ;
255 -> 257 ;
258 [label="entropy = 0.0\nsamples = 6\nvalue = [0, 0, 0, 6, 0, 0]"] ;
254 -> 258 ;
259 [label="entropy = 0.0\nsamples = 2\nvalue = [0, 0, 2, 0, 0, 0]"] ;
253 -> 259 ;
260 [label="fixed acidity <= 7.6\nentropy = 0.65\nsamples = 12\nvalue = [0, 0, 0, 10, 2, 0]"] ;
248 -> 260 ;
261 [label="entropy = 0.0\nsamples = 8\nvalue = [0, 0, 0, 8, 0, 0]"] ;
260 -> 261 ;
262 [label="residual sugar <= 1.85\nentropy = 1.0\nsamples = 4\nvalue = [0, 0, 0, 2, 2, 0]"] ;
260 -> 262 ;
263 [label="entropy = 0.0\nsamples = 2\nvalue = [0, 0, 0, 0, 2, 0]"] ;
262 -> 263 ;
264 [label="entropy = 0.0\nsamples = 2\nvalue = [0, 0, 0, 2, 0, 0]"] ;
262 -> 264 ;
265 [label="residual sugar <= 2.05\nentropy = 1.212\nsamples = 69\nvalue = [0, 3, 35, 31, 0, 0]"] ;
247 -> 265 ;
266 [label="citric acid <= 0.145\nentropy = 1.293\nsamples = 22\nvalue = [0, 3, 14, 5, 0, 0]"] ;
265 -> 266 ;
267 [label="entropy = 0.0\nsamples = 5\nvalue = [0, 0, 5, 0, 0, 0]"] ;
266 -> 267 ;
268 [label="volatile acidity <= 0.505\nentropy = 1.447\nsamples = 17\nvalue = [0, 3, 9, 5, 0, 0]"] ;
266 -> 268 ;
269 [label="alcohol <= 10.05\nentropy = 0.922\nsamples = 10\nvalue = [0, 1, 8, 1, 0, 0]"] ;
268 -> 269 ;
270 [label="entropy = 0.0\nsamples = 1\nvalue = [0, 1, 0, 0, 0, 0]"] ;
269 -> 270 ;
271 [label="volatile acidity <= 0.33\nentropy = 0.503\nsamples = 9\nvalue = [0, 0, 8, 1, 0, 0]"] ;
269 -> 271 ;
272 [label="free sulfur dioxide <= 10.0\nentropy = 1.0\nsamples = 2\nvalue = [0, 0, 1, 1, 0, 0]"] ;
271 -> 272 ;
273 [label="entropy = 0.0\nsamples = 1\nvalue = [0, 0, 1, 0, 0, 0]"] ;
272 -> 273 ;
274 [label="entropy = 0.0\nsamples = 1\nvalue = [0, 0, 0, 1, 0, 0]"] ;
272 -> 274 ;
275 [label="entropy = 0.0\nsamples = 7\nvalue = [0, 0, 7, 0, 0, 0]"] ;
271 -> 275 ;
276 [label="total sulfur dioxide <= 69.0\nentropy = 1.379\nsamples = 7\nvalue = [0, 2, 1, 4, 0, 0]"] ;
268 -> 276 ;
277 [label="density <= 0.997\nentropy = 0.918\nsamples = 6\nvalue = [0, 2, 0, 4, 0, 0]"] ;
276 -> 277 ;
278 [label="entropy = 0.0\nsamples = 3\nvalue = [0, 0, 0, 3, 0, 0]"] ;
277 -> 278 ;
279 [label="free sulfur dioxide <= 5.5\nentropy = 0.918\nsamples = 3\nvalue = [0, 2, 0, 1, 0, 0]"] ;
277 -> 279 ;
280 [label="entropy = 0.0\nsamples = 1\nvalue = [0, 0, 0, 1, 0, 0]"] ;
279 -> 280 ;
281 [label="entropy = 0.0\nsamples = 2\nvalue = [0, 2, 0, 0, 0, 0]"] ;
279 -> 281 ;
282 [label="entropy = 0.0\nsamples = 1\nvalue = [0, 0, 1, 0, 0, 0]"] ;
276 -> 282 ;
283 [label="density <= 0.998\nentropy = 0.992\nsamples = 47\nvalue = [0, 0, 21, 26, 0, 0]"] ;
265 -> 283 ;
284 [label="pH <= 3.315\nentropy = 0.84\nsamples = 26\nvalue = [0, 0, 7, 19, 0, 0]"] ;
283 -> 284 ;
285 [label="entropy = 0.0\nsamples = 9\nvalue = [0, 0, 0, 9, 0, 0]"] ;
284 -> 285 ;
286 [label="chlorides <= 0.079\nentropy = 0.977\nsamples = 17\nvalue = [0, 0, 7, 10, 0, 0]"] ;
284 -> 286 ;
287 [label="pH <= 3.375\nentropy = 0.863\nsamples = 7\nvalue = [0, 0, 5, 2, 0, 0]"] ;
286 -> 287 ;
288 [label="entropy = 0.0\nsamples = 2\nvalue = [0, 0, 0, 2, 0, 0]"] ;
287 -> 288 ;
289 [label="entropy = 0.0\nsamples = 5\nvalue = [0, 0, 5, 0, 0, 0]"] ;
287 -> 289 ;
290 [label="pH <= 3.38\nentropy = 0.722\nsamples = 10\nvalue = [0, 0, 2, 8, 0, 0]"] ;
286 -> 290 ;
291 [label="total sulfur dioxide <= 58.0\nentropy = 0.918\nsamples = 3\nvalue = [0, 0, 2, 1, 0, 0]"] ;
290 -> 291 ;
292 [label="entropy = 0.0\nsamples = 2\nvalue = [0, 0, 2, 0, 0, 0]"] ;
291 -> 292 ;
293 [label="entropy = 0.0\nsamples = 1\nvalue = [0, 0, 0, 1, 0, 0]"] ;
291 -> 293 ;
294 [label="entropy = 0.0\nsamples = 7\nvalue = [0, 0, 0, 7, 0, 0]"] ;
290 -> 294 ;
295 [label="fixed acidity <= 9.85\nentropy = 0.918\nsamples = 21\nvalue = [0, 0, 14, 7, 0, 0]"] ;
283 -> 295 ;
296 [label="entropy = 0.0\nsamples = 8\nvalue = [0, 0, 8, 0, 0, 0]"] ;
295 -> 296 ;
297 [label="free sulfur dioxide <= 12.5\nentropy = 0.996\nsamples = 13\nvalue = [0, 0, 6, 7, 0, 0]"] ;
295 -> 297 ;
298 [label="alcohol <= 10.45\nentropy = 0.65\nsamples = 6\nvalue = [0, 0, 5, 1, 0, 0]"] ;
297 -> 298 ;
299 [label="entropy = 0.0\nsamples = 5\nvalue = [0, 0, 5, 0, 0, 0]"] ;
298 -> 299 ;
300 [label="entropy = 0.0\nsamples = 1\nvalue = [0, 0, 0, 1, 0, 0]"] ;
298 -> 300 ;
301 [label="pH <= 3.07\nentropy = 0.592\nsamples = 7\nvalue = [0, 0, 1, 6, 0, 0]"] ;
297 -> 301 ;
302 [label="entropy = 0.0\nsamples = 1\nvalue = [0, 0, 1, 0, 0, 0]"] ;
301 -> 302 ;
303 [label="entropy = 0.0\nsamples = 6\nvalue = [0, 0, 0, 6, 0, 0]"] ;
301 -> 303 ;
304 [label="entropy = 0.0\nsamples = 2\nvalue = [0, 2, 0, 0, 0, 0]"] ;
246 -> 304 ;
305 [label="residual sugar <= 1.65\nentropy = 1.59\nsamples = 131\nvalue = [1, 1, 42, 63, 24, 0]"] ;
245 -> 305 ;
306 [label="free sulfur dioxide <= 14.0\nentropy = 1.573\nsamples = 13\nvalue = [1, 1, 0, 7, 4, 0]"] ;
305 -> 306 ;
307 [label="entropy = 0.0\nsamples = 7\nvalue = [0, 0, 0, 7, 0, 0]"] ;
306 -> 307 ;
308 [label="density <= 0.998\nentropy = 1.252\nsamples = 6\nvalue = [1, 1, 0, 0, 4, 0]"] ;
306 -> 308 ;
309 [label="entropy = 0.0\nsamples = 4\nvalue = [0, 0, 0, 0, 4, 0]"] ;
308 -> 309 ;
310 [label="free sulfur dioxide <= 35.0\nentropy = 1.0\nsamples = 2\nvalue = [1, 1, 0, 0, 0, 0]"] ;
308 -> 310 ;
311 [label="entropy = 0.0\nsamples = 1\nvalue = [1, 0, 0, 0, 0, 0]"] ;
310 -> 311 ;
312 [label="entropy = 0.0\nsamples = 1\nvalue = [0, 1, 0, 0, 0, 0]"] ;
310 -> 312 ;
313 [label="pH <= 3.45\nentropy = 1.475\nsamples = 118\nvalue = [0, 0, 42, 56, 20, 0]"] ;
305 -> 313 ;
314 [label="total sulfur dioxide <= 57.5\nentropy = 1.492\nsamples = 94\nvalue = [0, 0, 27, 47, 20, 0]"] ;
313 -> 314 ;
315 [label="free sulfur dioxide <= 16.5\nentropy = 1.428\nsamples = 64\nvalue = [0, 0, 11, 35, 18, 0]"] ;
314 -> 315 ;
316 [label="sulphates <= 0.715\nentropy = 1.526\nsamples = 44\nvalue = [0, 0, 9, 18, 17, 0]"] ;
315 -> 316 ;
317 [label="chlorides <= 0.078\nentropy = 1.522\nsamples = 17\nvalue = [0, 0, 8, 4, 5, 0]"] ;
316 -> 317 ;
318 [label="sulphates <= 0.665\nentropy = 1.252\nsamples = 6\nvalue = [0, 0, 1, 4, 1, 0]"] ;
317 -> 318 ;
319 [label="density <= 0.998\nentropy = 1.0\nsamples = 2\nvalue = [0, 0, 1, 0, 1, 0]"] ;
318 -> 319 ;
320 [label="entropy = 0.0\nsamples = 1\nvalue = [0, 0, 0, 0, 1, 0]"] ;
319 -> 320 ;
321 [label="entropy = 0.0\nsamples = 1\nvalue = [0, 0, 1, 0, 0, 0]"] ;
319 -> 321 ;
322 [label="entropy = 0.0\nsamples = 4\nvalue = [0, 0, 0, 4, 0, 0]"] ;
318 -> 322 ;
323 [label="citric acid <= 0.13\nentropy = 0.946\nsamples = 11\nvalue = [0, 0, 7, 0, 4, 0]"] ;
317 -> 323 ;
324 [label="entropy = 0.0\nsamples = 2\nvalue = [0, 0, 0, 0, 2, 0]"] ;
323 -> 324 ;
325 [label="alcohol <= 10.1\nentropy = 0.764\nsamples = 9\nvalue = [0, 0, 7, 0, 2, 0]"] ;
323 -> 325 ;
326 [label="pH <= 3.255\nentropy = 0.918\nsamples = 3\nvalue = [0, 0, 1, 0, 2, 0]"] ;
325 -> 326 ;
327 [label="entropy = 0.0\nsamples = 2\nvalue = [0, 0, 0, 0, 2, 0]"] ;
326 -> 327 ;
328 [label="entropy = 0.0\nsamples = 1\nvalue = [0, 0, 1, 0, 0, 0]"] ;
326 -> 328 ;
329 [label="entropy = 0.0\nsamples = 6\nvalue = [0, 0, 6, 0, 0, 0]"] ;
325 -> 329 ;
330 [label="citric acid <= 0.615\nentropy = 1.187\nsamples = 27\nvalue = [0, 0, 1, 14, 12, 0]"] ;
316 -> 330 ;
331 [label="chlorides <= 0.087\nentropy = 0.946\nsamples = 22\nvalue = [0, 0, 0, 14, 8, 0]"] ;
330 -> 331 ;
332 [label="chlorides <= 0.082\nentropy = 0.997\nsamples = 15\nvalue = [0, 0, 0, 7, 8, 0]"] ;
331 -> 332 ;
333 [label="sulphates <= 0.745\nentropy = 0.98\nsamples = 12\nvalue = [0, 0, 0, 7, 5, 0]"] ;
332 -> 333 ;
334 [label="entropy = 0.0\nsamples = 3\nvalue = [0, 0, 0, 0, 3, 0]"] ;
333 -> 334 ;
335 [label="chlorides <= 0.066\nentropy = 0.764\nsamples = 9\nvalue = [0, 0, 0, 7, 2, 0]"] ;
333 -> 335 ;
336 [label="chlorides <= 0.052\nentropy = 0.918\nsamples = 3\nvalue = [0, 0, 0, 1, 2, 0]"] ;
335 -> 336 ;
337 [label="entropy = 0.0\nsamples = 1\nvalue = [0, 0, 0, 1, 0, 0]"] ;
336 -> 337 ;
338 [label="entropy = 0.0\nsamples = 2\nvalue = [0, 0, 0, 0, 2, 0]"] ;
336 -> 338 ;
339 [label="entropy = 0.0\nsamples = 6\nvalue = [0, 0, 0, 6, 0, 0]"] ;
335 -> 339 ;
340 [label="entropy = 0.0\nsamples = 3\nvalue = [0, 0, 0, 0, 3, 0]"] ;
332 -> 340 ;
341 [label="entropy = 0.0\nsamples = 7\nvalue = [0, 0, 0, 7, 0, 0]"] ;
331 -> 341 ;
342 [label="citric acid <= 0.645\nentropy = 0.722\nsamples = 5\nvalue = [0, 0, 1, 0, 4, 0]"] ;
330 -> 342 ;
343 [label="entropy = 0.0\nsamples = 1\nvalue = [0, 0, 1, 0, 0, 0]"] ;
342 -> 343 ;
344 [label="entropy = 0.0\nsamples = 4\nvalue = [0, 0, 0, 0, 4, 0]"] ;
342 -> 344 ;
345 [label="volatile acidity <= 0.595\nentropy = 0.748\nsamples = 20\nvalue = [0, 0, 2, 17, 1, 0]"] ;
315 -> 345 ;
346 [label="free sulfur dioxide <= 30.0\nentropy = 0.323\nsamples = 17\nvalue = [0, 0, 0, 16, 1, 0]"] ;
345 -> 346 ;
347 [label="entropy = 0.0\nsamples = 15\nvalue = [0, 0, 0, 15, 0, 0]"] ;
346 -> 347 ;
348 [label="fixed acidity <= 8.75\nentropy = 1.0\nsamples = 2\nvalue = [0, 0, 0, 1, 1, 0]"] ;
346 -> 348 ;
349 [label="entropy = 0.0\nsamples = 1\nvalue = [0, 0, 0, 0, 1, 0]"] ;
348 -> 349 ;
350 [label="entropy = 0.0\nsamples = 1\nvalue = [0, 0, 0, 1, 0, 0]"] ;
348 -> 350 ;
351 [label="density <= 1.0\nentropy = 0.918\nsamples = 3\nvalue = [0, 0, 2, 1, 0, 0]"] ;
345 -> 351 ;
352 [label="entropy = 0.0\nsamples = 2\nvalue = [0, 0, 2, 0, 0, 0]"] ;
351 -> 352 ;
353 [label="entropy = 0.0\nsamples = 1\nvalue = [0, 0, 0, 1, 0, 0]"] ;
351 -> 353 ;
354 [label="volatile acidity <= 0.29\nentropy = 1.273\nsamples = 30\nvalue = [0, 0, 16, 12, 2, 0]"] ;
314 -> 354 ;
355 [label="entropy = 0.0\nsamples = 2\nvalue = [0, 0, 0, 0, 2, 0]"] ;
354 -> 355 ;
356 [label="residual sugar <= 5.3\nentropy = 0.985\nsamples = 28\nvalue = [0, 0, 16, 12, 0, 0]"] ;
354 -> 356 ;
357 [label="alcohol <= 10.35\nentropy = 0.994\nsamples = 22\nvalue = [0, 0, 10, 12, 0, 0]"] ;
356 -> 357 ;
358 [label="pH <= 2.935\nentropy = 0.94\nsamples = 14\nvalue = [0, 0, 9, 5, 0, 0]"] ;
357 -> 358 ;
359 [label="entropy = 0.0\nsamples = 3\nvalue = [0, 0, 0, 3, 0, 0]"] ;
358 -> 359 ;
360 [label="volatile acidity <= 0.355\nentropy = 0.684\nsamples = 11\nvalue = [0, 0, 9, 2, 0, 0]"] ;
358 -> 360 ;
361 [label="entropy = 0.0\nsamples = 2\nvalue = [0, 0, 0, 2, 0, 0]"] ;
360 -> 361 ;
362 [label="entropy = 0.0\nsamples = 9\nvalue = [0, 0, 9, 0, 0, 0]"] ;
360 -> 362 ;
363 [label="pH <= 3.125\nentropy = 0.544\nsamples = 8\nvalue = [0, 0, 1, 7, 0, 0]"] ;
357 -> 363 ;
364 [label="entropy = 0.0\nsamples = 1\nvalue = [0, 0, 1, 0, 0, 0]"] ;
363 -> 364 ;
365 [label="entropy = 0.0\nsamples = 7\nvalue = [0, 0, 0, 7, 0, 0]"] ;
363 -> 365 ;
366 [label="entropy = 0.0\nsamples = 6\nvalue = [0, 0, 6, 0, 0, 0]"] ;
356 -> 366 ;
367 [label="chlorides <= 0.079\nentropy = 0.954\nsamples = 24\nvalue = [0, 0, 15, 9, 0, 0]"] ;
313 -> 367 ;
368 [label="free sulfur dioxide <= 31.5\nentropy = 0.918\nsamples = 12\nvalue = [0, 0, 4, 8, 0, 0]"] ;
367 -> 368 ;
369 [label="entropy = 0.0\nsamples = 7\nvalue = [0, 0, 0, 7, 0, 0]"] ;
368 -> 369 ;
370 [label="chlorides <= 0.062\nentropy = 0.722\nsamples = 5\nvalue = [0, 0, 4, 1, 0, 0]"] ;
368 -> 370 ;
371 [label="entropy = 0.0\nsamples = 1\nvalue = [0, 0, 0, 1, 0, 0]"] ;
370 -> 371 ;
372 [label="entropy = 0.0\nsamples = 4\nvalue = [0, 0, 4, 0, 0, 0]"] ;
370 -> 372 ;
373 [label="sulphates <= 0.845\nentropy = 0.414\nsamples = 12\nvalue = [0, 0, 11, 1, 0, 0]"] ;
367 -> 373 ;
374 [label="entropy = 0.0\nsamples = 11\nvalue = [0, 0, 11, 0, 0, 0]"] ;
373 -> 374 ;
375 [label="entropy = 0.0\nsamples = 1\nvalue = [0, 0, 0, 1, 0, 0]"] ;
373 -> 375 ;
376 [label="sulphates <= 0.625\nentropy = 1.788\nsamples = 472\nvalue = [3, 13, 78, 231, 133, 14]"] ;
0 -> 376 [labeldistance=2.5, labelangle=-45, headlabel="False"] ;
377 [label="alcohol <= 11.45\nentropy = 1.673\nsamples = 185\nvalue = [3, 11, 48, 102, 21, 0]"] ;
376 -> 377 ;
378 [label="volatile acidity <= 1.0\nentropy = 1.685\nsamples = 98\nvalue = [3, 8, 39, 44, 4, 0]"] ;
377 -> 378 ;
379 [label="chlorides <= 0.076\nentropy = 1.463\nsamples = 90\nvalue = [0, 5, 37, 44, 4, 0]"] ;
378 -> 379 ;
380 [label="volatile acidity <= 0.41\nentropy = 1.599\nsamples = 40\nvalue = [0, 3, 22, 11, 4, 0]"] ;
379 -> 380 ;
381 [label="citric acid <= 0.395\nentropy = 1.379\nsamples = 7\nvalue = [0, 0, 2, 1, 4, 0]"] ;
380 -> 381 ;
382 [label="entropy = 0.0\nsamples = 4\nvalue = [0, 0, 0, 0, 4, 0]"] ;
381 -> 382 ;
383 [label="density <= 0.997\nentropy = 0.918\nsamples = 3\nvalue = [0, 0, 2, 1, 0, 0]"] ;
381 -> 383 ;
384 [label="entropy = 0.0\nsamples = 2\nvalue = [0, 0, 2, 0, 0, 0]"] ;
383 -> 384 ;
385 [label="entropy = 0.0\nsamples = 1\nvalue = [0, 0, 0, 1, 0, 0]"] ;
383 -> 385 ;
386 [label="citric acid <= 0.115\nentropy = 1.274\nsamples = 33\nvalue = [0, 3, 20, 10, 0, 0]"] ;
380 -> 386 ;
387 [label="volatile acidity <= 0.835\nentropy = 1.449\nsamples = 21\nvalue = [0, 3, 9, 9, 0, 0]"] ;
386 -> 387 ;
388 [label="total sulfur dioxide <= 35.5\nentropy = 1.42\nsamples = 16\nvalue = [0, 3, 9, 4, 0, 0]"] ;
387 -> 388 ;
389 [label="residual sugar <= 2.15\nentropy = 0.918\nsamples = 9\nvalue = [0, 3, 6, 0, 0, 0]"] ;
388 -> 389 ;
390 [label="entropy = 0.0\nsamples = 5\nvalue = [0, 0, 5, 0, 0, 0]"] ;
389 -> 390 ;
391 [label="chlorides <= 0.056\nentropy = 0.811\nsamples = 4\nvalue = [0, 3, 1, 0, 0, 0]"] ;
389 -> 391 ;
392 [label="entropy = 0.0\nsamples = 1\nvalue = [0, 0, 1, 0, 0, 0]"] ;
391 -> 392 ;
393 [label="entropy = 0.0\nsamples = 3\nvalue = [0, 3, 0, 0, 0, 0]"] ;
391 -> 393 ;
394 [label="alcohol <= 11.1\nentropy = 0.985\nsamples = 7\nvalue = [0, 0, 3, 4, 0, 0]"] ;
388 -> 394 ;
395 [label="pH <= 3.36\nentropy = 0.971\nsamples = 5\nvalue = [0, 0, 3, 2, 0, 0]"] ;
394 -> 395 ;
396 [label="entropy = 0.0\nsamples = 2\nvalue = [0, 0, 0, 2, 0, 0]"] ;
395 -> 396 ;
397 [label="entropy = 0.0\nsamples = 3\nvalue = [0, 0, 3, 0, 0, 0]"] ;
395 -> 397 ;
398 [label="entropy = 0.0\nsamples = 2\nvalue = [0, 0, 0, 2, 0, 0]"] ;
394 -> 398 ;
399 [label="entropy = 0.0\nsamples = 5\nvalue = [0, 0, 0, 5, 0, 0]"] ;
387 -> 399 ;
400 [label="free sulfur dioxide <= 21.0\nentropy = 0.414\nsamples = 12\nvalue = [0, 0, 11, 1, 0, 0]"] ;
386 -> 400 ;
401 [label="entropy = 0.0\nsamples = 11\nvalue = [0, 0, 11, 0, 0, 0]"] ;
400 -> 401 ;
402 [label="entropy = 0.0\nsamples = 1\nvalue = [0, 0, 0, 1, 0, 0]"] ;
400 -> 402 ;
403 [label="pH <= 3.455\nentropy = 1.102\nsamples = 50\nvalue = [0, 2, 15, 33, 0, 0]"] ;
379 -> 403 ;
404 [label="pH <= 3.33\nentropy = 0.995\nsamples = 43\nvalue = [0, 2, 9, 32, 0, 0]"] ;
403 -> 404 ;
405 [label="chlorides <= 0.113\nentropy = 0.989\nsamples = 16\nvalue = [0, 0, 7, 9, 0, 0]"] ;
404 -> 405 ;
406 [label="residual sugar <= 2.05\nentropy = 0.996\nsamples = 13\nvalue = [0, 0, 7, 6, 0, 0]"] ;
405 -> 406 ;
407 [label="entropy = 0.0\nsamples = 2\nvalue = [0, 0, 0, 2, 0, 0]"] ;
406 -> 407 ;
408 [label="total sulfur dioxide <= 37.5\nentropy = 0.946\nsamples = 11\nvalue = [0, 0, 7, 4, 0, 0]"] ;
406 -> 408 ;
409 [label="free sulfur dioxide <= 11.0\nentropy = 0.985\nsamples = 7\nvalue = [0, 0, 3, 4, 0, 0]"] ;
408 -> 409 ;
410 [label="alcohol <= 10.85\nentropy = 0.811\nsamples = 4\nvalue = [0, 0, 3, 1, 0, 0]"] ;
409 -> 410 ;
411 [label="entropy = 0.0\nsamples = 1\nvalue = [0, 0, 0, 1, 0, 0]"] ;
410 -> 411 ;
412 [label="entropy = 0.0\nsamples = 3\nvalue = [0, 0, 3, 0, 0, 0]"] ;
410 -> 412 ;
413 [label="entropy = 0.0\nsamples = 3\nvalue = [0, 0, 0, 3, 0, 0]"] ;
409 -> 413 ;
414 [label="entropy = 0.0\nsamples = 4\nvalue = [0, 0, 4, 0, 0, 0]"] ;
408 -> 414 ;
415 [label="entropy = 0.0\nsamples = 3\nvalue = [0, 0, 0, 3, 0, 0]"] ;
405 -> 415 ;
416 [label="total sulfur dioxide <= 14.0\nentropy = 0.753\nsamples = 27\nvalue = [0, 2, 2, 23, 0, 0]"] ;
404 -> 416 ;
417 [label="chlorides <= 0.104\nentropy = 1.522\nsamples = 5\nvalue = [0, 2, 1, 2, 0, 0]"] ;
416 -> 417 ;
418 [label="chlorides <= 0.091\nentropy = 0.918\nsamples = 3\nvalue = [0, 2, 1, 0, 0, 0]"] ;
417 -> 418 ;
419 [label="entropy = 0.0\nsamples = 1\nvalue = [0, 0, 1, 0, 0, 0]"] ;
418 -> 419 ;
420 [label="entropy = 0.0\nsamples = 2\nvalue = [0, 2, 0, 0, 0, 0]"] ;
418 -> 420 ;
421 [label="entropy = 0.0\nsamples = 2\nvalue = [0, 0, 0, 2, 0, 0]"] ;
417 -> 421 ;
422 [label="citric acid <= 0.005\nentropy = 0.267\nsamples = 22\nvalue = [0, 0, 1, 21, 0, 0]"] ;
416 -> 422 ;
423 [label="entropy = 0.0\nsamples = 1\nvalue = [0, 0, 1, 0, 0, 0]"] ;
422 -> 423 ;
424 [label="entropy = 0.0\nsamples = 21\nvalue = [0, 0, 0, 21, 0, 0]"] ;
422 -> 424 ;
425 [label="free sulfur dioxide <= 12.0\nentropy = 0.592\nsamples = 7\nvalue = [0, 0, 6, 1, 0, 0]"] ;
403 -> 425 ;
426 [label="entropy = 0.0\nsamples = 5\nvalue = [0, 0, 5, 0, 0, 0]"] ;
425 -> 426 ;
427 [label="residual sugar <= 1.95\nentropy = 1.0\nsamples = 2\nvalue = [0, 0, 1, 1, 0, 0]"] ;
425 -> 427 ;
428 [label="entropy = 0.0\nsamples = 1\nvalue = [0, 0, 1, 0, 0, 0]"] ;
427 -> 428 ;
429 [label="entropy = 0.0\nsamples = 1\nvalue = [0, 0, 0, 1, 0, 0]"] ;
427 -> 429 ;
430 [label="alcohol <= 11.1\nentropy = 1.561\nsamples = 8\nvalue = [3, 3, 2, 0, 0, 0]"] ;
378 -> 430 ;
431 [label="residual sugar <= 1.95\nentropy = 0.971\nsamples = 5\nvalue = [3, 0, 2, 0, 0, 0]"] ;
430 -> 431 ;
432 [label="entropy = 0.0\nsamples = 2\nvalue = [0, 0, 2, 0, 0, 0]"] ;
431 -> 432 ;
433 [label="entropy = 0.0\nsamples = 3\nvalue = [3, 0, 0, 0, 0, 0]"] ;
431 -> 433 ;
434 [label="entropy = 0.0\nsamples = 3\nvalue = [0, 3, 0, 0, 0, 0]"] ;
430 -> 434 ;
435 [label="fixed acidity <= 6.55\nentropy = 1.356\nsamples = 87\nvalue = [0, 3, 9, 58, 17, 0]"] ;
377 -> 435 ;
436 [label="density <= 0.994\nentropy = 1.325\nsamples = 31\nvalue = [0, 3, 6, 21, 1, 0]"] ;
435 -> 436 ;
437 [label="free sulfur dioxide <= 18.0\nentropy = 1.248\nsamples = 16\nvalue = [0, 0, 6, 9, 1, 0]"] ;
436 -> 437 ;
438 [label="sulphates <= 0.525\nentropy = 0.811\nsamples = 12\nvalue = [0, 0, 3, 9, 0, 0]"] ;
437 -> 438 ;
439 [label="entropy = 0.0\nsamples = 2\nvalue = [0, 0, 2, 0, 0, 0]"] ;
438 -> 439 ;
440 [label="density <= 0.994\nentropy = 0.469\nsamples = 10\nvalue = [0, 0, 1, 9, 0, 0]"] ;
438 -> 440 ;
441 [label="entropy = 0.0\nsamples = 9\nvalue = [0, 0, 0, 9, 0, 0]"] ;
440 -> 441 ;
442 [label="entropy = 0.0\nsamples = 1\nvalue = [0, 0, 1, 0, 0, 0]"] ;
440 -> 442 ;
443 [label="total sulfur dioxide <= 101.0\nentropy = 0.811\nsamples = 4\nvalue = [0, 0, 3, 0, 1, 0]"] ;
437 -> 443 ;
444 [label="entropy = 0.0\nsamples = 3\nvalue = [0, 0, 3, 0, 0, 0]"] ;
443 -> 444 ;
445 [label="entropy = 0.0\nsamples = 1\nvalue = [0, 0, 0, 0, 1, 0]"] ;
443 -> 445 ;
446 [label="free sulfur dioxide <= 12.0\nentropy = 0.722\nsamples = 15\nvalue = [0, 3, 0, 12, 0, 0]"] ;
436 -> 446 ;
447 [label="density <= 0.995\nentropy = 0.971\nsamples = 5\nvalue = [0, 3, 0, 2, 0, 0]"] ;
446 -> 447 ;
448 [label="entropy = 0.0\nsamples = 2\nvalue = [0, 0, 0, 2, 0, 0]"] ;
447 -> 448 ;
449 [label="entropy = 0.0\nsamples = 3\nvalue = [0, 3, 0, 0, 0, 0]"] ;
447 -> 449 ;
450 [label="entropy = 0.0\nsamples = 10\nvalue = [0, 0, 0, 10, 0, 0]"] ;
446 -> 450 ;
451 [label="residual sugar <= 3.9\nentropy = 1.138\nsamples = 56\nvalue = [0, 0, 3, 37, 16, 0]"] ;
435 -> 451 ;
452 [label="residual sugar <= 2.525\nentropy = 1.027\nsamples = 47\nvalue = [0, 0, 3, 35, 9, 0]"] ;
451 -> 452 ;
453 [label="sulphates <= 0.545\nentropy = 0.916\nsamples = 41\nvalue = [0, 0, 1, 31, 9, 0]"] ;
452 -> 453 ;
454 [label="sulphates <= 0.395\nentropy = 0.591\nsamples = 19\nvalue = [0, 0, 1, 17, 1, 0]"] ;
453 -> 454 ;
455 [label="entropy = 0.0\nsamples = 1\nvalue = [0, 0, 0, 0, 1, 0]"] ;
454 -> 455 ;
456 [label="chlorides <= 0.058\nentropy = 0.31\nsamples = 18\nvalue = [0, 0, 1, 17, 0, 0]"] ;
454 -> 456 ;
457 [label="citric acid <= 0.285\nentropy = 0.918\nsamples = 3\nvalue = [0, 0, 1, 2, 0, 0]"] ;
456 -> 457 ;
458 [label="entropy = 0.0\nsamples = 1\nvalue = [0, 0, 1, 0, 0, 0]"] ;
457 -> 458 ;
459 [label="entropy = 0.0\nsamples = 2\nvalue = [0, 0, 0, 2, 0, 0]"] ;
457 -> 459 ;
460 [label="entropy = 0.0\nsamples = 15\nvalue = [0, 0, 0, 15, 0, 0]"] ;
456 -> 460 ;
461 [label="pH <= 3.265\nentropy = 0.946\nsamples = 22\nvalue = [0, 0, 0, 14, 8, 0]"] ;
453 -> 461 ;
462 [label="total sulfur dioxide <= 37.5\nentropy = 0.722\nsamples = 5\nvalue = [0, 0, 0, 1, 4, 0]"] ;
461 -> 462 ;
463 [label="entropy = 0.0\nsamples = 4\nvalue = [0, 0, 0, 0, 4, 0]"] ;
462 -> 463 ;
464 [label="entropy = 0.0\nsamples = 1\nvalue = [0, 0, 0, 1, 0, 0]"] ;
462 -> 464 ;
465 [label="fixed acidity <= 7.15\nentropy = 0.787\nsamples = 17\nvalue = [0, 0, 0, 13, 4, 0]"] ;
461 -> 465 ;
466 [label="total sulfur dioxide <= 15.0\nentropy = 1.0\nsamples = 8\nvalue = [0, 0, 0, 4, 4, 0]"] ;
465 -> 466 ;
467 [label="entropy = 0.0\nsamples = 2\nvalue = [0, 0, 0, 0, 2, 0]"] ;
466 -> 467 ;
468 [label="volatile acidity <= 0.55\nentropy = 0.918\nsamples = 6\nvalue = [0, 0, 0, 4, 2, 0]"] ;
466 -> 468 ;
469 [label="entropy = 0.0\nsamples = 3\nvalue = [0, 0, 0, 3, 0, 0]"] ;
468 -> 469 ;
470 [label="chlorides <= 0.071\nentropy = 0.918\nsamples = 3\nvalue = [0, 0, 0, 1, 2, 0]"] ;
468 -> 470 ;
471 [label="entropy = 0.0\nsamples = 2\nvalue = [0, 0, 0, 0, 2, 0]"] ;
470 -> 471 ;
472 [label="entropy = 0.0\nsamples = 1\nvalue = [0, 0, 0, 1, 0, 0]"] ;
470 -> 472 ;
473 [label="entropy = 0.0\nsamples = 9\nvalue = [0, 0, 0, 9, 0, 0]"] ;
465 -> 473 ;
474 [label="residual sugar <= 2.65\nentropy = 0.918\nsamples = 6\nvalue = [0, 0, 2, 4, 0, 0]"] ;
452 -> 474 ;
475 [label="entropy = 0.0\nsamples = 2\nvalue = [0, 0, 2, 0, 0, 0]"] ;
474 -> 475 ;
476 [label="entropy = 0.0\nsamples = 4\nvalue = [0, 0, 0, 4, 0, 0]"] ;
474 -> 476 ;
477 [label="alcohol <= 11.75\nentropy = 0.764\nsamples = 9\nvalue = [0, 0, 0, 2, 7, 0]"] ;
451 -> 477 ;
478 [label="entropy = 0.0\nsamples = 2\nvalue = [0, 0, 0, 2, 0, 0]"] ;
477 -> 478 ;
479 [label="entropy = 0.0\nsamples = 7\nvalue = [0, 0, 0, 0, 7, 0]"] ;
477 -> 479 ;
480 [label="alcohol <= 11.55\nentropy = 1.651\nsamples = 287\nvalue = [0, 2, 30, 129, 112, 14]"] ;
376 -> 480 ;
481 [label="volatile acidity <= 0.395\nentropy = 1.616\nsamples = 165\nvalue = [0, 2, 26, 89, 44, 4]"] ;
480 -> 481 ;
482 [label="pH <= 3.255\nentropy = 1.702\nsamples = 74\nvalue = [0, 0, 12, 25, 33, 4]"] ;
481 -> 482 ;
483 [label="alcohol <= 10.85\nentropy = 1.316\nsamples = 29\nvalue = [0, 0, 0, 7, 18, 4]"] ;
482 -> 483 ;
484 [label="entropy = 0.0\nsamples = 8\nvalue = [0, 0, 0, 0, 8, 0]"] ;
483 -> 484 ;
485 [label="sulphates <= 0.785\nentropy = 1.494\nsamples = 21\nvalue = [0, 0, 0, 7, 10, 4]"] ;
483 -> 485 ;
486 [label="total sulfur dioxide <= 27.5\nentropy = 1.53\nsamples = 9\nvalue = [0, 0, 0, 2, 3, 4]"] ;
485 -> 486 ;
487 [label="volatile acidity <= 0.335\nentropy = 0.971\nsamples = 5\nvalue = [0, 0, 0, 2, 0, 3]"] ;
486 -> 487 ;
488 [label="entropy = 0.0\nsamples = 2\nvalue = [0, 0, 0, 2, 0, 0]"] ;
487 -> 488 ;
489 [label="entropy = 0.0\nsamples = 3\nvalue = [0, 0, 0, 0, 0, 3]"] ;
487 -> 489 ;
490 [label="sulphates <= 0.745\nentropy = 0.811\nsamples = 4\nvalue = [0, 0, 0, 0, 3, 1]"] ;
486 -> 490 ;
491 [label="entropy = 0.0\nsamples = 3\nvalue = [0, 0, 0, 0, 3, 0]"] ;
490 -> 491 ;
492 [label="entropy = 0.0\nsamples = 1\nvalue = [0, 0, 0, 0, 0, 1]"] ;
490 -> 492 ;
493 [label="sulphates <= 0.92\nentropy = 0.98\nsamples = 12\nvalue = [0, 0, 0, 5, 7, 0]"] ;
485 -> 493 ;
494 [label="volatile acidity <= 0.38\nentropy = 0.764\nsamples = 9\nvalue = [0, 0, 0, 2, 7, 0]"] ;
493 -> 494 ;
495 [label="entropy = 0.0\nsamples = 7\nvalue = [0, 0, 0, 0, 7, 0]"] ;
494 -> 495 ;
496 [label="entropy = 0.0\nsamples = 2\nvalue = [0, 0, 0, 2, 0, 0]"] ;
494 -> 496 ;
497 [label="entropy = 0.0\nsamples = 3\nvalue = [0, 0, 0, 3, 0, 0]"] ;
493 -> 497 ;
498 [label="alcohol <= 10.75\nentropy = 1.566\nsamples = 45\nvalue = [0, 0, 12, 18, 15, 0]"] ;
482 -> 498 ;
499 [label="volatile acidity <= 0.315\nentropy = 0.811\nsamples = 8\nvalue = [0, 0, 6, 2, 0, 0]"] ;
498 -> 499 ;
500 [label="sulphates <= 0.7\nentropy = 0.918\nsamples = 3\nvalue = [0, 0, 1, 2, 0, 0]"] ;
499 -> 500 ;
501 [label="entropy = 0.0\nsamples = 1\nvalue = [0, 0, 1, 0, 0, 0]"] ;
500 -> 501 ;
502 [label="entropy = 0.0\nsamples = 2\nvalue = [0, 0, 0, 2, 0, 0]"] ;
500 -> 502 ;
503 [label="entropy = 0.0\nsamples = 5\nvalue = [0, 0, 5, 0, 0, 0]"] ;
499 -> 503 ;
504 [label="fixed acidity <= 7.95\nentropy = 1.477\nsamples = 37\nvalue = [0, 0, 6, 16, 15, 0]"] ;
498 -> 504 ;
505 [label="total sulfur dioxide <= 51.0\nentropy = 1.459\nsamples = 18\nvalue = [0, 0, 6, 3, 9, 0]"] ;
504 -> 505 ;
506 [label="density <= 0.994\nentropy = 0.866\nsamples = 11\nvalue = [0, 0, 1, 1, 9, 0]"] ;
505 -> 506 ;
507 [label="entropy = 0.0\nsamples = 1\nvalue = [0, 0, 1, 0, 0, 0]"] ;
506 -> 507 ;
508 [label="alcohol <= 11.4\nentropy = 0.469\nsamples = 10\nvalue = [0, 0, 0, 1, 9, 0]"] ;
506 -> 508 ;
509 [label="entropy = 0.0\nsamples = 9\nvalue = [0, 0, 0, 0, 9, 0]"] ;
508 -> 509 ;
510 [label="entropy = 0.0\nsamples = 1\nvalue = [0, 0, 0, 1, 0, 0]"] ;
508 -> 510 ;
511 [label="chlorides <= 0.093\nentropy = 0.863\nsamples = 7\nvalue = [0, 0, 5, 2, 0, 0]"] ;
505 -> 511 ;
512 [label="entropy = 0.0\nsamples = 5\nvalue = [0, 0, 5, 0, 0, 0]"] ;
511 -> 512 ;
513 [label="entropy = 0.0\nsamples = 2\nvalue = [0, 0, 0, 2, 0, 0]"] ;
511 -> 513 ;
514 [label="density <= 0.998\nentropy = 0.9\nsamples = 19\nvalue = [0, 0, 0, 13, 6, 0]"] ;
504 -> 514 ;
515 [label="alcohol <= 11.1\nentropy = 0.567\nsamples = 15\nvalue = [0, 0, 0, 13, 2, 0]"] ;
514 -> 515 ;
516 [label="entropy = 0.0\nsamples = 12\nvalue = [0, 0, 0, 12, 0, 0]"] ;
515 -> 516 ;
517 [label="sulphates <= 0.66\nentropy = 0.918\nsamples = 3\nvalue = [0, 0, 0, 1, 2, 0]"] ;
515 -> 517 ;
518 [label="entropy = 0.0\nsamples = 1\nvalue = [0, 0, 0, 1, 0, 0]"] ;
517 -> 518 ;
519 [label="entropy = 0.0\nsamples = 2\nvalue = [0, 0, 0, 0, 2, 0]"] ;
517 -> 519 ;
520 [label="entropy = 0.0\nsamples = 4\nvalue = [0, 0, 0, 0, 4, 0]"] ;
514 -> 520 ;
521 [label="volatile acidity <= 0.905\nentropy = 1.262\nsamples = 91\nvalue = [0, 2, 14, 64, 11, 0]"] ;
481 -> 521 ;
522 [label="citric acid <= 0.225\nentropy = 1.117\nsamples = 88\nvalue = [0, 0, 13, 64, 11, 0]"] ;
521 -> 522 ;
523 [label="citric acid <= 0.065\nentropy = 0.544\nsamples = 40\nvalue = [0, 0, 0, 35, 5, 0]"] ;
522 -> 523 ;
524 [label="entropy = 0.0\nsamples = 19\nvalue = [0, 0, 0, 19, 0, 0]"] ;
523 -> 524 ;
525 [label="density <= 0.995\nentropy = 0.792\nsamples = 21\nvalue = [0, 0, 0, 16, 5, 0]"] ;
523 -> 525 ;
526 [label="entropy = 0.0\nsamples = 9\nvalue = [0, 0, 0, 9, 0, 0]"] ;
525 -> 526 ;
527 [label="pH <= 3.435\nentropy = 0.98\nsamples = 12\nvalue = [0, 0, 0, 7, 5, 0]"] ;
525 -> 527 ;
528 [label="chlorides <= 0.089\nentropy = 0.764\nsamples = 9\nvalue = [0, 0, 0, 7, 2, 0]"] ;
527 -> 528 ;
529 [label="entropy = 0.0\nsamples = 6\nvalue = [0, 0, 0, 6, 0, 0]"] ;
528 -> 529 ;
530 [label="citric acid <= 0.12\nentropy = 0.918\nsamples = 3\nvalue = [0, 0, 0, 1, 2, 0]"] ;
528 -> 530 ;
531 [label="entropy = 0.0\nsamples = 2\nvalue = [0, 0, 0, 0, 2, 0]"] ;
530 -> 531 ;
532 [label="entropy = 0.0\nsamples = 1\nvalue = [0, 0, 0, 1, 0, 0]"] ;
530 -> 532 ;
533 [label="entropy = 0.0\nsamples = 3\nvalue = [0, 0, 0, 0, 3, 0]"] ;
527 -> 533 ;
534 [label="chlorides <= 0.094\nentropy = 1.325\nsamples = 48\nvalue = [0, 0, 13, 29, 6, 0]"] ;
522 -> 534 ;
535 [label="total sulfur dioxide <= 73.5\nentropy = 1.022\nsamples = 34\nvalue = [0, 0, 4, 26, 4, 0]"] ;
534 -> 535 ;
536 [label="alcohol <= 11.05\nentropy = 0.754\nsamples = 31\nvalue = [0, 0, 1, 26, 4, 0]"] ;
535 -> 536 ;
537 [label="sulphates <= 0.84\nentropy = 0.323\nsamples = 17\nvalue = [0, 0, 1, 16, 0, 0]"] ;
536 -> 537 ;
538 [label="entropy = 0.0\nsamples = 16\nvalue = [0, 0, 0, 16, 0, 0]"] ;
537 -> 538 ;
539 [label="entropy = 0.0\nsamples = 1\nvalue = [0, 0, 1, 0, 0, 0]"] ;
537 -> 539 ;
540 [label="fixed acidity <= 10.25\nentropy = 0.863\nsamples = 14\nvalue = [0, 0, 0, 10, 4, 0]"] ;
536 -> 540 ;
541 [label="chlorides <= 0.071\nentropy = 1.0\nsamples = 8\nvalue = [0, 0, 0, 4, 4, 0]"] ;
540 -> 541 ;
542 [label="entropy = 0.0\nsamples = 3\nvalue = [0, 0, 0, 0, 3, 0]"] ;
541 -> 542 ;
543 [label="chlorides <= 0.082\nentropy = 0.722\nsamples = 5\nvalue = [0, 0, 0, 4, 1, 0]"] ;
541 -> 543 ;
544 [label="entropy = 0.0\nsamples = 4\nvalue = [0, 0, 0, 4, 0, 0]"] ;
543 -> 544 ;
545 [label="entropy = 0.0\nsamples = 1\nvalue = [0, 0, 0, 0, 1, 0]"] ;
543 -> 545 ;
546 [label="entropy = 0.0\nsamples = 6\nvalue = [0, 0, 0, 6, 0, 0]"] ;
540 -> 546 ;
547 [label="entropy = 0.0\nsamples = 3\nvalue = [0, 0, 3, 0, 0, 0]"] ;
535 -> 547 ;
548 [label="citric acid <= 0.62\nentropy = 1.287\nsamples = 14\nvalue = [0, 0, 9, 3, 2, 0]"] ;
534 -> 548 ;
549 [label="free sulfur dioxide <= 26.5\nentropy = 0.811\nsamples = 12\nvalue = [0, 0, 9, 3, 0, 0]"] ;
548 -> 549 ;
550 [label="entropy = 0.0\nsamples = 8\nvalue = [0, 0, 8, 0, 0, 0]"] ;
549 -> 550 ;
551 [label="total sulfur dioxide <= 127.0\nentropy = 0.811\nsamples = 4\nvalue = [0, 0, 1, 3, 0, 0]"] ;
549 -> 551 ;
552 [label="entropy = 0.0\nsamples = 3\nvalue = [0, 0, 0, 3, 0, 0]"] ;
551 -> 552 ;
553 [label="entropy = 0.0\nsamples = 1\nvalue = [0, 0, 1, 0, 0, 0]"] ;
551 -> 553 ;
554 [label="entropy = 0.0\nsamples = 2\nvalue = [0, 0, 0, 0, 2, 0]"] ;
548 -> 554 ;
555 [label="pH <= 3.605\nentropy = 0.918\nsamples = 3\nvalue = [0, 2, 1, 0, 0, 0]"] ;
521 -> 555 ;
556 [label="entropy = 0.0\nsamples = 2\nvalue = [0, 2, 0, 0, 0, 0]"] ;
555 -> 556 ;
557 [label="entropy = 0.0\nsamples = 1\nvalue = [0, 0, 1, 0, 0, 0]"] ;
555 -> 557 ;
558 [label="alcohol <= 12.95\nentropy = 1.455\nsamples = 122\nvalue = [0, 0, 4, 40, 68, 10]"] ;
480 -> 558 ;
559 [label="fixed acidity <= 7.75\nentropy = 1.237\nsamples = 102\nvalue = [0, 0, 0, 34, 61, 7]"] ;
558 -> 559 ;
560 [label="fixed acidity <= 5.75\nentropy = 1.0\nsamples = 30\nvalue = [0, 0, 0, 15, 15, 0]"] ;
559 -> 560 ;
561 [label="entropy = 0.0\nsamples = 6\nvalue = [0, 0, 0, 0, 6, 0]"] ;
560 -> 561 ;
562 [label="fixed acidity <= 6.5\nentropy = 0.954\nsamples = 24\nvalue = [0, 0, 0, 15, 9, 0]"] ;
560 -> 562 ;
563 [label="entropy = 0.0\nsamples = 6\nvalue = [0, 0, 0, 6, 0, 0]"] ;
562 -> 563 ;
564 [label="fixed acidity <= 7.35\nentropy = 1.0\nsamples = 18\nvalue = [0, 0, 0, 9, 9, 0]"] ;
562 -> 564 ;
565 [label="alcohol <= 12.55\nentropy = 0.722\nsamples = 10\nvalue = [0, 0, 0, 2, 8, 0]"] ;
564 -> 565 ;
566 [label="entropy = 0.0\nsamples = 6\nvalue = [0, 0, 0, 0, 6, 0]"] ;
565 -> 566 ;
567 [label="density <= 0.994\nentropy = 1.0\nsamples = 4\nvalue = [0, 0, 0, 2, 2, 0]"] ;
565 -> 567 ;
568 [label="entropy = 0.0\nsamples = 2\nvalue = [0, 0, 0, 0, 2, 0]"] ;
567 -> 568 ;
569 [label="entropy = 0.0\nsamples = 2\nvalue = [0, 0, 0, 2, 0, 0]"] ;
567 -> 569 ;
570 [label="volatile acidity <= 0.657\nentropy = 0.544\nsamples = 8\nvalue = [0, 0, 0, 7, 1, 0]"] ;
564 -> 570 ;
571 [label="entropy = 0.0\nsamples = 7\nvalue = [0, 0, 0, 7, 0, 0]"] ;
570 -> 571 ;
572 [label="entropy = 0.0\nsamples = 1\nvalue = [0, 0, 0, 0, 1, 0]"] ;
570 -> 572 ;
573 [label="citric acid <= 0.325\nentropy = 1.247\nsamples = 72\nvalue = [0, 0, 0, 19, 46, 7]"] ;
559 -> 573 ;
574 [label="citric acid <= 0.105\nentropy = 1.149\nsamples = 7\nvalue = [0, 0, 0, 5, 1, 1]"] ;
573 -> 574 ;
575 [label="chlorides <= 0.071\nentropy = 1.0\nsamples = 2\nvalue = [0, 0, 0, 0, 1, 1]"] ;
574 -> 575 ;
576 [label="entropy = 0.0\nsamples = 1\nvalue = [0, 0, 0, 0, 0, 1]"] ;
575 -> 576 ;
577 [label="entropy = 0.0\nsamples = 1\nvalue = [0, 0, 0, 0, 1, 0]"] ;
575 -> 577 ;
578 [label="entropy = 0.0\nsamples = 5\nvalue = [0, 0, 0, 5, 0, 0]"] ;
574 -> 578 ;
579 [label="sulphates <= 0.695\nentropy = 1.162\nsamples = 65\nvalue = [0, 0, 0, 14, 45, 6]"] ;
573 -> 579 ;
580 [label="residual sugar <= 1.95\nentropy = 1.462\nsamples = 19\nvalue = [0, 0, 0, 7, 9, 3]"] ;
579 -> 580 ;
581 [label="entropy = 0.0\nsamples = 3\nvalue = [0, 0, 0, 0, 0, 3]"] ;
580 -> 581 ;
582 [label="total sulfur dioxide <= 38.0\nentropy = 0.989\nsamples = 16\nvalue = [0, 0, 0, 7, 9, 0]"] ;
580 -> 582 ;
583 [label="volatile acidity <= 0.295\nentropy = 0.89\nsamples = 13\nvalue = [0, 0, 0, 4, 9, 0]"] ;
582 -> 583 ;
584 [label="entropy = 0.0\nsamples = 2\nvalue = [0, 0, 0, 2, 0, 0]"] ;
583 -> 584 ;
585 [label="residual sugar <= 2.3\nentropy = 0.684\nsamples = 11\nvalue = [0, 0, 0, 2, 9, 0]"] ;
583 -> 585